digraph Tree {
node [shape=box] ;
0 [label="X[0] <= 49.5\ngini = 0.155\nsamples = 1465\nvalue = [124, 1341]"] ;
1 [label="X[5] <= 0.016\ngini = 0.296\nsamples = 249\nvalue = [45, 204]"] ;
0 -> 1 [labeldistance=2.5, labelangle=45, headlabel="True"] ;
2 [label="X[8] <= -0.06\ngini = 0.237\nsamples = 226\nvalue = [31, 195]"] ;
1 -> 2 ;
3 [label="X[2] <= 98.5\ngini = 0.161\nsamples = 204\nvalue = [18, 186]"] ;
2 -> 3 ;
4 [label="X[12] <= 9.609\ngini = 0.123\nsamples = 183\nvalue = [12, 171]"] ;
3 -> 4 ;
5 [label="gini = 0.0\nsamples = 1\nvalue = [1, 0]"] ;
4 -> 5 ;
6 [label="X[11] <= 0.855\ngini = 0.114\nsamples = 182\nvalue = [11, 171]"] ;
4 -> 6 ;
7 [label="X[6] <= 0.0\ngini = 0.105\nsamples = 180\nvalue = [10, 170]"] ;
6 -> 7 ;
8 [label="X[2] <= 89.5\ngini = 0.051\nsamples = 115\nvalue = [3, 112]"] ;
7 -> 8 ;
9 [label="X[6] <= -0.0\ngini = 0.034\nsamples = 114\nvalue = [2, 112]"] ;
8 -> 9 ;
10 [label="X[6] <= -0.0\ngini = 0.444\nsamples = 3\nvalue = [1, 2]"] ;
9 -> 10 ;
11 [label="gini = 0.0\nsamples = 2\nvalue = [0, 2]"] ;
10 -> 11 ;
12 [label="gini = 0.0\nsamples = 1\nvalue = [1, 0]"] ;
10 -> 12 ;
13 [label="X[9] <= -0.491\ngini = 0.018\nsamples = 111\nvalue = [1, 110]"] ;
9 -> 13 ;
14 [label="gini = 0.278\nsamples = 6\nvalue = [1, 5]"] ;
13 -> 14 ;
15 [label="gini = 0.0\nsamples = 105\nvalue = [0, 105]"] ;
13 -> 15 ;
16 [label="gini = 0.0\nsamples = 1\nvalue = [1, 0]"] ;
8 -> 16 ;
17 [label="X[5] <= 0.006\ngini = 0.192\nsamples = 65\nvalue = [7, 58]"] ;
7 -> 17 ;
18 [label="gini = 0.0\nsamples = 2\nvalue = [2, 0]"] ;
17 -> 18 ;
19 [label="X[6] <= 0.0\ngini = 0.146\nsamples = 63\nvalue = [5, 58]"] ;
17 -> 19 ;
20 [label="X[8] <= -0.079\ngini = 0.49\nsamples = 7\nvalue = [3, 4]"] ;
19 -> 20 ;
21 [label="gini = 0.375\nsamples = 4\nvalue = [3, 1]"] ;
20 -> 21 ;
22 [label="gini = 0.0\nsamples = 3\nvalue = [0, 3]"] ;
20 -> 22 ;
23 [label="X[10] <= 4.0\ngini = 0.069\nsamples = 56\nvalue = [2, 54]"] ;
19 -> 23 ;
24 [label="gini = 0.0\nsamples = 49\nvalue = [0, 49]"] ;
23 -> 24 ;
25 [label="gini = 0.408\nsamples = 7\nvalue = [2, 5]"] ;
23 -> 25 ;
26 [label="X[11] <= 0.88\ngini = 0.5\nsamples = 2\nvalue = [1, 1]"] ;
6 -> 26 ;
27 [label="gini = 0.0\nsamples = 1\nvalue = [1, 0]"] ;
26 -> 27 ;
28 [label="gini = 0.0\nsamples = 1\nvalue = [0, 1]"] ;
26 -> 28 ;
29 [label="X[4] <= 0.5\ngini = 0.408\nsamples = 21\nvalue = [6, 15]"] ;
3 -> 29 ;
30 [label="gini = 0.0\nsamples = 5\nvalue = [5, 0]"] ;
29 -> 30 ;
31 [label="X[8] <= -0.074\ngini = 0.117\nsamples = 16\nvalue = [1, 15]"] ;
29 -> 31 ;
32 [label="gini = 0.0\nsamples = 15\nvalue = [0, 15]"] ;
31 -> 32 ;
33 [label="gini = 0.0\nsamples = 1\nvalue = [1, 0]"] ;
31 -> 33 ;
34 [label="X[3] <= 0.5\ngini = 0.483\nsamples = 22\nvalue = [13, 9]"] ;
2 -> 34 ;
35 [label="X[6] <= 0.0\ngini = 0.397\nsamples = 11\nvalue = [3, 8]"] ;
34 -> 35 ;
36 [label="gini = 0.0\nsamples = 7\nvalue = [0, 7]"] ;
35 -> 36 ;
37 [label="X[1] <= 0.5\ngini = 0.375\nsamples = 4\nvalue = [3, 1]"] ;
35 -> 37 ;
38 [label="gini = 0.0\nsamples = 3\nvalue = [3, 0]"] ;
37 -> 38 ;
39 [label="gini = 0.0\nsamples = 1\nvalue = [0, 1]"] ;
37 -> 39 ;
40 [label="X[2] <= 77.5\ngini = 0.165\nsamples = 11\nvalue = [10, 1]"] ;
34 -> 40 ;
41 [label="gini = 0.0\nsamples = 10\nvalue = [10, 0]"] ;
40 -> 41 ;
42 [label="gini = 0.0\nsamples = 1\nvalue = [0, 1]"] ;
40 -> 42 ;
43 [label="X[2] <= 98.5\ngini = 0.476\nsamples = 23\nvalue = [14, 9]"] ;
1 -> 43 ;
44 [label="X[12] <= 18.891\ngini = 0.426\nsamples = 13\nvalue = [4, 9]"] ;
43 -> 44 ;
45 [label="X[6] <= -0.0\ngini = 0.18\nsamples = 10\nvalue = [1, 9]"] ;
44 -> 45 ;
46 [label="gini = 0.0\nsamples = 1\nvalue = [1, 0]"] ;
45 -> 46 ;
47 [label="gini = 0.0\nsamples = 9\nvalue = [0, 9]"] ;
45 -> 47 ;
48 [label="gini = 0.0\nsamples = 3\nvalue = [3, 0]"] ;
44 -> 48 ;
49 [label="gini = 0.0\nsamples = 10\nvalue = [10, 0]"] ;
43 -> 49 ;
50 [label="X[7] <= -0.001\ngini = 0.121\nsamples = 1216\nvalue = [79, 1137]"] ;
0 -> 50 [labeldistance=2.5, labelangle=-45, headlabel="False"] ;
51 [label="X[12] <= 18.681\ngini = 0.5\nsamples = 10\nvalue = [5, 5]"] ;
50 -> 51 ;
52 [label="gini = 0.0\nsamples = 5\nvalue = [5, 0]"] ;
51 -> 52 ;
53 [label="gini = 0.0\nsamples = 5\nvalue = [0, 5]"] ;
51 -> 53 ;
54 [label="X[7] <= -0.001\ngini = 0.115\nsamples = 1206\nvalue = [74, 1132]"] ;
50 -> 54 ;
55 [label="X[7] <= -0.001\ngini = 0.196\nsamples = 335\nvalue = [37, 298]"] ;
54 -> 55 ;
56 [label="X[11] <= 0.223\ngini = 0.188\nsamples = 333\nvalue = [35, 298]"] ;
55 -> 56 ;
57 [label="X[2] <= 81.5\ngini = 0.055\nsamples = 107\nvalue = [3, 104]"] ;
56 -> 57 ;
58 [label="X[6] <= 0.0\ngini = 0.103\nsamples = 55\nvalue = [3, 52]"] ;
57 -> 58 ;
59 [label="X[5] <= 0.017\ngini = 0.041\nsamples = 48\nvalue = [1, 47]"] ;
58 -> 59 ;
60 [label="gini = 0.0\nsamples = 38\nvalue = [0, 38]"] ;
59 -> 60 ;
61 [label="X[5] <= 0.018\ngini = 0.18\nsamples = 10\nvalue = [1, 9]"] ;
59 -> 61 ;
62 [label="gini = 0.0\nsamples = 1\nvalue = [1, 0]"] ;
61 -> 62 ;
63 [label="gini = 0.0\nsamples = 9\nvalue = [0, 9]"] ;
61 -> 63 ;
64 [label="X[8] <= -0.1\ngini = 0.408\nsamples = 7\nvalue = [2, 5]"] ;
58 -> 64 ;
65 [label="gini = 0.0\nsamples = 4\nvalue = [0, 4]"] ;
64 -> 65 ;
66 [label="X[11] <= 0.13\ngini = 0.444\nsamples = 3\nvalue = [2, 1]"] ;
64 -> 66 ;
67 [label="gini = 0.0\nsamples = 1\nvalue = [0, 1]"] ;
66 -> 67 ;
68 [label="gini = 0.0\nsamples = 2\nvalue = [2, 0]"] ;
66 -> 68 ;
69 [label="gini = 0.0\nsamples = 52\nvalue = [0, 52]"] ;
57 -> 69 ;
70 [label="X[2] <= 73.0\ngini = 0.243\nsamples = 226\nvalue = [32, 194]"] ;
56 -> 70 ;
71 [label="X[0] <= 71.5\ngini = 0.382\nsamples = 66\nvalue = [17, 49]"] ;
70 -> 71 ;
72 [label="X[2] <= 56.0\ngini = 0.499\nsamples = 31\nvalue = [15, 16]"] ;
71 -> 72 ;
73 [label="gini = 0.0\nsamples = 8\nvalue = [0, 8]"] ;
72 -> 73 ;
74 [label="X[2] <= 66.5\ngini = 0.454\nsamples = 23\nvalue = [15, 8]"] ;
72 -> 74 ;
75 [label="gini = 0.0\nsamples = 11\nvalue = [11, 0]"] ;
74 -> 75 ;
76 [label="X[11] <= 0.553\ngini = 0.444\nsamples = 12\nvalue = [4, 8]"] ;
74 -> 76 ;
77 [label="gini = 0.32\nsamples = 10\nvalue = [2, 8]"] ;
76 -> 77 ;
78 [label="gini = 0.0\nsamples = 2\nvalue = [2, 0]"] ;
76 -> 78 ;
79 [label="X[12] <= 28.395\ngini = 0.108\nsamples = 35\nvalue = [2, 33]"] ;
71 -> 79 ;
80 [label="X[2] <= 71.0\ngini = 0.057\nsamples = 34\nvalue = [1, 33]"] ;
79 -> 80 ;
81 [label="gini = 0.0\nsamples = 33\nvalue = [0, 33]"] ;
80 -> 81 ;
82 [label="gini = 0.0\nsamples = 1\nvalue = [1, 0]"] ;
80 -> 82 ;
83 [label="gini = 0.0\nsamples = 1\nvalue = [1, 0]"] ;
79 -> 83 ;
84 [label="X[5] <= 0.015\ngini = 0.17\nsamples = 160\nvalue = [15, 145]"] ;
70 -> 84 ;
85 [label="X[0] <= 61.5\ngini = 0.076\nsamples = 101\nvalue = [4, 97]"] ;
84 -> 85 ;
86 [label="X[5] <= 0.01\ngini = 0.219\nsamples = 32\nvalue = [4, 28]"] ;
85 -> 86 ;
87 [label="X[5] <= 0.009\ngini = 0.49\nsamples = 7\nvalue = [3, 4]"] ;
86 -> 87 ;
88 [label="gini = 0.0\nsamples = 4\nvalue = [0, 4]"] ;
87 -> 88 ;
89 [label="gini = 0.0\nsamples = 3\nvalue = [3, 0]"] ;
87 -> 89 ;
90 [label="X[12] <= 12.703\ngini = 0.077\nsamples = 25\nvalue = [1, 24]"] ;
86 -> 90 ;
91 [label="gini = 0.5\nsamples = 2\nvalue = [1, 1]"] ;
90 -> 91 ;
92 [label="gini = 0.0\nsamples = 23\nvalue = [0, 23]"] ;
90 -> 92 ;
93 [label="gini = 0.0\nsamples = 69\nvalue = [0, 69]"] ;
85 -> 93 ;
94 [label="X[2] <= 100.5\ngini = 0.303\nsamples = 59\nvalue = [11, 48]"] ;
84 -> 94 ;
95 [label="X[5] <= 0.017\ngini = 0.204\nsamples = 52\nvalue = [6, 46]"] ;
94 -> 95 ;
96 [label="X[9] <= 1.294\ngini = 0.408\nsamples = 21\nvalue = [6, 15]"] ;
95 -> 96 ;
97 [label="gini = 0.332\nsamples = 19\nvalue = [4, 15]"] ;
96 -> 97 ;
98 [label="gini = 0.0\nsamples = 2\nvalue = [2, 0]"] ;
96 -> 98 ;
99 [label="gini = 0.0\nsamples = 31\nvalue = [0, 31]"] ;
95 -> 99 ;
100 [label="X[9] <= 0.937\ngini = 0.408\nsamples = 7\nvalue = [5, 2]"] ;
94 -> 100 ;
101 [label="gini = 0.0\nsamples = 5\nvalue = [5, 0]"] ;
100 -> 101 ;
102 [label="gini = 0.0\nsamples = 2\nvalue = [0, 2]"] ;
100 -> 102 ;
103 [label="gini = 0.0\nsamples = 2\nvalue = [2, 0]"] ;
55 -> 103 ;
104 [label="X[12] <= 18.413\ngini = 0.081\nsamples = 871\nvalue = [37, 834]"] ;
54 -> 104 ;
105 [label="X[12] <= 18.374\ngini = 0.134\nsamples = 345\nvalue = [25, 320]"] ;
104 -> 105 ;
106 [label="X[2] <= 70.5\ngini = 0.125\nsamples = 342\nvalue = [23, 319]"] ;
105 -> 106 ;
107 [label="X[5] <= 0.009\ngini = 0.237\nsamples = 124\nvalue = [17, 107]"] ;
106 -> 107 ;
108 [label="X[11] <= 0.489\ngini = 0.11\nsamples = 86\nvalue = [5, 81]"] ;
107 -> 108 ;
109 [label="X[0] <= 52.0\ngini = 0.026\nsamples = 76\nvalue = [1, 75]"] ;
108 -> 109 ;
110 [label="gini = 0.0\nsamples = 1\nvalue = [1, 0]"] ;
109 -> 110 ;
111 [label="gini = 0.0\nsamples = 75\nvalue = [0, 75]"] ;
109 -> 111 ;
112 [label="X[9] <= 0.269\ngini = 0.48\nsamples = 10\nvalue = [4, 6]"] ;
108 -> 112 ;
113 [label="gini = 0.0\nsamples = 3\nvalue = [3, 0]"] ;
112 -> 113 ;
114 [label="X[2] <= 51.5\ngini = 0.245\nsamples = 7\nvalue = [1, 6]"] ;
112 -> 114 ;
115 [label="gini = 0.0\nsamples = 1\nvalue = [1, 0]"] ;
114 -> 115 ;
116 [label="gini = 0.0\nsamples = 6\nvalue = [0, 6]"] ;
114 -> 116 ;
117 [label="X[12] <= 17.469\ngini = 0.432\nsamples = 38\nvalue = [12, 26]"] ;
107 -> 117 ;
118 [label="X[4] <= 0.5\ngini = 0.358\nsamples = 30\nvalue = [7, 23]"] ;
117 -> 118 ;
119 [label="gini = 0.0\nsamples = 14\nvalue = [0, 14]"] ;
118 -> 119 ;
120 [label="X[12] <= 12.255\ngini = 0.492\nsamples = 16\nvalue = [7, 9]"] ;
118 -> 120 ;
121 [label="gini = 0.0\nsamples = 4\nvalue = [4, 0]"] ;
120 -> 121 ;
122 [label="gini = 0.375\nsamples = 12\nvalue = [3, 9]"] ;
120 -> 122 ;
123 [label="X[4] <= 0.5\ngini = 0.469\nsamples = 8\nvalue = [5, 3]"] ;
117 -> 123 ;
124 [label="gini = 0.0\nsamples = 4\nvalue = [4, 0]"] ;
123 -> 124 ;
125 [label="X[11] <= 0.419\ngini = 0.375\nsamples = 4\nvalue = [1, 3]"] ;
123 -> 125 ;
126 [label="gini = 0.0\nsamples = 3\nvalue = [0, 3]"] ;
125 -> 126 ;
127 [label="gini = 0.0\nsamples = 1\nvalue = [1, 0]"] ;
125 -> 127 ;
128 [label="X[7] <= 0.001\ngini = 0.054\nsamples = 218\nvalue = [6, 212]"] ;
106 -> 128 ;
129 [label="X[0] <= 87.5\ngini = 0.045\nsamples = 217\nvalue = [5, 212]"] ;
128 -> 129 ;
130 [label="X[2] <= 114.0\ngini = 0.036\nsamples = 216\nvalue = [4, 212]"] ;
129 -> 130 ;
131 [label="X[12] <= 18.03\ngini = 0.028\nsamples = 210\nvalue = [3, 207]"] ;
130 -> 131 ;
132 [label="gini = 0.02\nsamples = 202\nvalue = [2, 200]"] ;
131 -> 132 ;
133 [label="gini = 0.219\nsamples = 8\nvalue = [1, 7]"] ;
131 -> 133 ;
134 [label="X[2] <= 118.0\ngini = 0.278\nsamples = 6\nvalue = [1, 5]"] ;
130 -> 134 ;
135 [label="gini = 0.0\nsamples = 1\nvalue = [1, 0]"] ;
134 -> 135 ;
136 [label="gini = 0.0\nsamples = 5\nvalue = [0, 5]"] ;
134 -> 136 ;
137 [label="gini = 0.0\nsamples = 1\nvalue = [1, 0]"] ;
129 -> 137 ;
138 [label="gini = 0.0\nsamples = 1\nvalue = [1, 0]"] ;
128 -> 138 ;
139 [label="X[3] <= 0.5\ngini = 0.444\nsamples = 3\nvalue = [2, 1]"] ;
105 -> 139 ;
140 [label="gini = 0.0\nsamples = 2\nvalue = [2, 0]"] ;
139 -> 140 ;
141 [label="gini = 0.0\nsamples = 1\nvalue = [0, 1]"] ;
139 -> 141 ;
142 [label="X[11] <= 0.511\ngini = 0.045\nsamples = 526\nvalue = [12, 514]"] ;
104 -> 142 ;
143 [label="X[6] <= 0.0\ngini = 0.035\nsamples = 508\nvalue = [9, 499]"] ;
142 -> 143 ;
144 [label="X[2] <= 112.0\ngini = 0.028\nsamples = 497\nvalue = [7, 490]"] ;
143 -> 144 ;
145 [label="X[11] <= 0.334\ngini = 0.021\nsamples = 482\nvalue = [5, 477]"] ;
144 -> 145 ;
146 [label="X[2] <= 91.0\ngini = 0.006\nsamples = 353\nvalue = [1, 352]"] ;
145 -> 146 ;
147 [label="gini = 0.0\nsamples = 303\nvalue = [0, 303]"] ;
146 -> 147 ;
148 [label="X[0] <= 72.5\ngini = 0.039\nsamples = 50\nvalue = [1, 49]"] ;
146 -> 148 ;
149 [label="gini = 0.0\nsamples = 40\nvalue = [0, 40]"] ;
148 -> 149 ;
150 [label="gini = 0.18\nsamples = 10\nvalue = [1, 9]"] ;
148 -> 150 ;
151 [label="X[11] <= 0.334\ngini = 0.06\nsamples = 129\nvalue = [4, 125]"] ;
145 -> 151 ;
152 [label="gini = 0.0\nsamples = 1\nvalue = [1, 0]"] ;
151 -> 152 ;
153 [label="X[11] <= 0.336\ngini = 0.046\nsamples = 128\nvalue = [3, 125]"] ;
151 -> 153 ;
154 [label="gini = 0.375\nsamples = 4\nvalue = [1, 3]"] ;
153 -> 154 ;
155 [label="gini = 0.032\nsamples = 124\nvalue = [2, 122]"] ;
153 -> 155 ;
156 [label="X[4] <= 0.5\ngini = 0.231\nsamples = 15\nvalue = [2, 13]"] ;
144 -> 156 ;
157 [label="gini = 0.0\nsamples = 2\nvalue = [2, 0]"] ;
156 -> 157 ;
158 [label="gini = 0.0\nsamples = 13\nvalue = [0, 13]"] ;
156 -> 158 ;
159 [label="X[5] <= 0.016\ngini = 0.298\nsamples = 11\nvalue = [2, 9]"] ;
143 -> 159 ;
160 [label="gini = 0.0\nsamples = 8\nvalue = [0, 8]"] ;
159 -> 160 ;
161 [label="X[2] <= 72.5\ngini = 0.444\nsamples = 3\nvalue = [2, 1]"] ;
159 -> 161 ;
162 [label="gini = 0.0\nsamples = 1\nvalue = [0, 1]"] ;
161 -> 162 ;
163 [label="gini = 0.0\nsamples = 2\nvalue = [2, 0]"] ;
161 -> 163 ;
164 [label="X[11] <= 0.512\ngini = 0.278\nsamples = 18\nvalue = [3, 15]"] ;
142 -> 164 ;
165 [label="gini = 0.0\nsamples = 1\nvalue = [1, 0]"] ;
164 -> 165 ;
166 [label="X[0] <= 74.5\ngini = 0.208\nsamples = 17\nvalue = [2, 15]"] ;
164 -> 166 ;
167 [label="X[9] <= -0.278\ngini = 0.117\nsamples = 16\nvalue = [1, 15]"] ;
166 -> 167 ;
168 [label="gini = 0.0\nsamples = 1\nvalue = [1, 0]"] ;
167 -> 168 ;
169 [label="gini = 0.0\nsamples = 15\nvalue = [0, 15]"] ;
167 -> 169 ;
170 [label="gini = 0.0\nsamples = 1\nvalue = [1, 0]"] ;
166 -> 170 ;
}